<?xml version="1.0"?>
<opencv_storage>
<cascade>
  <stageType>BOOST</stageType>
  <featureType>LBP</featureType>
  <height>40</height>
  <width>80</width>
  <stageParams>
    <boostType>GAB</boostType>
    <minHitRate>9.9900001287460327e-01</minHitRate>
    <maxFalseAlarm>5.0000000000000000e-01</maxFalseAlarm>
    <weightTrimRate>9.4999999999999996e-01</weightTrimRate>
    <maxDepth>1</maxDepth>
    <maxWeakCount>100</maxWeakCount></stageParams>
  <featureParams>
    <maxCatCount>256</maxCatCount>
    <featSize>1</featSize></featureParams>
  <stageNum>17</stageNum>
  <stages>
    <!-- stage 0 -->
    <_>
      <maxWeakCount>4</maxWeakCount>
      <stageThreshold>-1.8463517427444458e+00</stageThreshold>
      <weakClassifiers>
        <_>
          <internalNodes>
            0 -1 75 -788279062 -204763062 -266616811 -134229621
            -729050945 -745897777 -762323969 -201327617</internalNodes>
          <leafValues>
            -8.9503705501556396e-01 6.4185112714767456e-01</leafValues></_>
        <_>
          <internalNodes>
            0 -1 89 -134217730 -7736952 -1859092264 -572657495
            -745746022 1292370304 -1460474881 -3169297</internalNodes>
          <leafValues>
            -7.9174095392227173e-01 7.0020014047622681e-01</leafValues></_>
        <_>
          <internalNodes>
            0 -1 62 -1053974 -138160694 1384366278 -216284977 -896608562
            -2143092608 1435495326 -715654146</internalNodes>
          <leafValues>
            -7.7136594057083130e-01 6.7060017585754395e-01</leafValues></_>
        <_>
          <internalNodes>
            0 -1 13 -675285509 526324565 285448701 1073566015 1226308607
            235866635 1653472255 492396383</internalNodes>
          <leafValues>
            -8.1489783525466919e-01 6.1179220676422119e-01</leafValues></_></weakClassifiers></_>
    <!-- stage 1 -->
    <_>
      <maxWeakCount>4</maxWeakCount>
      <stageThreshold>-1.7032434940338135e+00</stageThreshold>
      <weakClassifiers>
        <_>
          <internalNodes>
            0 -1 80 -2097153 -660740 -766459780 -134232577 -745737234
            -922222456 -69407749 -2097153</internalNodes>
          <leafValues>
            -8.6005020141601562e-01 6.4074480533599854e-01</leafValues></_>
        <_>
          <internalNodes>
            0 -1 48 -2097426 -539503738 -1316992956 -69240884
            -1344536882 857522188 -253494545 -203423745</internalNodes>
          <leafValues>
            -7.6234066486358643e-01 6.2994647026062012e-01</leafValues></_>
        <_>
          <internalNodes>
            0 -1 3 -202378753 1373964045 -1020538505 -677396141
            1405346559 1048834 -1047726593 1945625551</internalNodes>
          <leafValues>
            -7.3838448524475098e-01 6.2953335046768188e-01</leafValues></_>
        <_>
          <internalNodes>
            0 -1 56 -792215358 1476391270 -787230049 2132269767
            -775692050 -368066001 1440739839 -677380101</internalNodes>
          <leafValues>
            -7.0862734317779541e-01 6.5753191709518433e-01</leafValues></_></weakClassifiers></_>
    <!-- stage 2 -->
    <_>
      <maxWeakCount>6</maxWeakCount>
      <stageThreshold>-1.7476181983947754e+00</stageThreshold>
      <weakClassifiers>
        <_>
          <internalNodes>
            0 -1 91 -774913329 -673197681 -183517097 -681587237
            -104867073 -606097749 -76547345 -2126881</internalNodes>
          <leafValues>
            -8.0873292684555054e-01 6.7666232585906982e-01</leafValues></_>
        <_>
          <internalNodes>
            0 -1 25 -2752513 -168693293 -245148713 -45025421 -7603201
            -58681094 -36176897 -133107213</internalNodes>
          <leafValues>
            -7.4212986230850220e-01 5.8448708057403564e-01</leafValues></_>
        <_>
          <internalNodes>
            0 -1 98 -775429150 -77866082 -769408854 -237026617
            1904460426 1464207620 -142347282 -137364497</internalNodes>
          <leafValues>
            -7.0445162057876587e-01 6.4503669738769531e-01</leafValues></_>
        <_>
          <internalNodes>
            0 -1 49 -770706814 -213911809 -403705409 -672139329 -5507141
            -1304428801 -404226049 -137365509</internalNodes>
          <leafValues>
            -6.0116946697235107e-01 6.9571202993392944e-01</leafValues></_>
        <_>
          <internalNodes>
            0 -1 43 -24126774 1469003946 1344553611 -672695570
            1905220291 -1957706993 -237250613 -774900874</internalNodes>
          <leafValues>
            -6.8654453754425049e-01 6.2600940465927124e-01</leafValues></_>
        <_>
          <internalNodes>
            0 -1 28 -1686470689 1071380447 -2112921729 1033499123
            -541069313 -273689633 -637832705 178454699</internalNodes>
          <leafValues>
            -8.2667124271392822e-01 4.9852868914604187e-01</leafValues></_></weakClassifiers></_>
    <!-- stage 3 -->
    <_>
      <maxWeakCount>6</maxWeakCount>
      <stageThreshold>-1.9187693595886230e+00</stageThreshold>
      <weakClassifiers>
        <_>
          <internalNodes>
            0 -1 71 -644359542 -2142264888 1342496930 -52451937
            -1281900018 -1157444926 -1166548493 -5473</internalNodes>
          <leafValues>
            -8.6591517925262451e-01 3.7112489342689514e-01</leafValues></_>
        <_>
          <internalNodes>
            0 -1 92 -783302454 -1055842 1359341513 -547637825 -940590353
            2076959620 -1026557201 -740295777</internalNodes>
          <leafValues>
            -7.5686311721801758e-01 4.6800532937049866e-01</leafValues></_>
        <_>
          <internalNodes>
            0 -1 8 -1198456865 -687619075 1888279927 -738998889
            327214071 -1290573317 -265266177 -67764225</internalNodes>
          <leafValues>
            -6.9761127233505249e-01 4.9562856554985046e-01</leafValues></_>
        <_>
          <internalNodes>
            0 -1 85 -775810872 -573930545 291566845 -716193409
            -2020626740 -930174258 -963721078 -715162213</internalNodes>
          <leafValues>
            -7.0715165138244629e-01 4.9298956990242004e-01</leafValues></_>
        <_>
          <internalNodes>
            0 -1 66 -655370773 -2063485812 16839233 8508437 -1043989521
            999002587 1370215487 268430079</internalNodes>
          <leafValues>
            -6.6614979505538940e-01 5.4712623357772827e-01</leafValues></_>
        <_>
          <internalNodes>
            0 -1 11 -129622016 1879080970 1074004052 -196849458
            1879182344 814227968 1384138926 -1874132974</internalNodes>
          <leafValues>
            -6.4318668842315674e-01 5.8007609844207764e-01</leafValues></_></weakClassifiers></_>
    <!-- stage 4 -->
    <_>
      <maxWeakCount>6</maxWeakCount>
      <stageThreshold>-2.1542434692382812e+00</stageThreshold>
      <weakClassifiers>
        <_>
          <internalNodes>
            0 -1 34 -592379905 -919563 -572530721 -26037289 -844234753
            -1060913 -590749697 -1</internalNodes>
          <leafValues>
            -8.3584684133529663e-01 3.6311787366867065e-01</leafValues></_>
        <_>
          <internalNodes>
            0 -1 6 -537853953 -12320807 2061159927 -142853 865137655
            -149870113 -262876681 -134877193</internalNodes>
          <leafValues>
            -7.8622764348983765e-01 3.4977555274963379e-01</leafValues></_>
        <_>
          <internalNodes>
            0 -1 79 -4181 1997665260 -82779518 -8397183 -1366405410
            1461472137 1666119599 2012741631</internalNodes>
          <leafValues>
            -7.2849106788635254e-01 3.9989832043647766e-01</leafValues></_>
        <_>
          <internalNodes>
            0 -1 26 -8388609 -795184 -134217729 1590712309 -151324161
            -142295396 -37945353 -1091545611</internalNodes>
          <leafValues>
            -6.8918281793594360e-01 4.6738955378532410e-01</leafValues></_>
        <_>
          <internalNodes>
            0 -1 7 -16930849 -1149302533 532535095 1308433371 -89333011
            -307778641 -1381245203 100005887</internalNodes>
          <leafValues>
            -6.3310027122497559e-01 5.2598446607589722e-01</leafValues></_>
        <_>
          <internalNodes>
            0 -1 95 -172493142 2064204680 -1551884152 -108038193
            -115617413 126207112 -213190193 1437595603</internalNodes>
          <leafValues>
            -7.6635658740997314e-01 4.2845359444618225e-01</leafValues></_></weakClassifiers></_>
    <!-- stage 5 -->
    <_>
      <maxWeakCount>5</maxWeakCount>
      <stageThreshold>-1.5837110280990601e+00</stageThreshold>
      <weakClassifiers>
        <_>
          <internalNodes>
            0 -1 78 -1 -2099202 1502385077 -6292485 -19070978
            -1074526024 -2756609 -257</internalNodes>
          <leafValues>
            -7.9860919713973999e-01 4.0994474291801453e-01</leafValues></_>
        <_>
          <internalNodes>
            0 -1 32 -606537729 -36381187 -175064613 -539011074
            -1680932865 -1077953121 -1083285505 268176636</internalNodes>
          <leafValues>
            -7.2446256875991821e-01 3.4390944242477417e-01</leafValues></_>
        <_>
          <internalNodes>
            0 -1 29 -639631654 -773850241 815122514 1904163227
            -1075054710 21547904 954203071 290193342</internalNodes>
          <leafValues>
            -7.9306697845458984e-01 3.6606016755104065e-01</leafValues></_>
        <_>
          <internalNodes>
            0 -1 39 -27328523 -51839792 1599037405 -40239912 -2163722
            -829628784 -271780125 -861384464</internalNodes>
          <leafValues>
            -7.4115866422653198e-01 4.1159147024154663e-01</leafValues></_>
        <_>
          <internalNodes>
            0 -1 68 1414255554 -134497585 -989080131 2013224778
            -1467300869 -742145042 1112407800 1437586398</internalNodes>
          <leafValues>
            -7.4078637361526489e-01 4.0521433949470520e-01</leafValues></_></weakClassifiers></_>
    <!-- stage 6 -->
    <_>
      <maxWeakCount>5</maxWeakCount>
      <stageThreshold>-1.5847047567367554e+00</stageThreshold>
      <weakClassifiers>
        <_>
          <internalNodes>
            0 -1 21 -983041 -67447297 -941629537 -2111585 -171900929 -97
            -33686529 -1</internalNodes>
          <leafValues>
            -8.2013344764709473e-01 3.1054130196571350e-01</leafValues></_>
        <_>
          <internalNodes>
            0 -1 14 -572654083 -656914979 -1617846275 1507416925
            -306580481 -1534589768 -74654465 4224204</internalNodes>
          <leafValues>
            -8.0559051036834717e-01 2.6709938049316406e-01</leafValues></_>
        <_>
          <internalNodes>
            0 -1 30 -2254017 2145222449 -135397385 -1116711593
            -746586113 -50548749 1543159791 -1196420687</internalNodes>
          <leafValues>
            -6.8502616882324219e-01 4.3072587251663208e-01</leafValues></_>
        <_>
          <internalNodes>
            0 -1 76 2009855994 -2365498 1418960650 2008770474 -68157537
            -67271411 -740320369 1942770618</internalNodes>
          <leafValues>
            -7.3379760980606079e-01 3.9037507772445679e-01</leafValues></_>
        <_>
          <internalNodes>
            0 -1 42 13914228 -587565195 -545784353 -1107337857 383590785
            -1090538305 -1678770185 -1111539714</internalNodes>
          <leafValues>
            -7.2859895229339600e-01 4.1559392213821411e-01</leafValues></_></weakClassifiers></_>
    <!-- stage 7 -->
    <_>
      <maxWeakCount>6</maxWeakCount>
      <stageThreshold>-2.1946434974670410e+00</stageThreshold>
      <weakClassifiers>
        <_>
          <internalNodes>
            0 -1 74 -213650433 -10487041 -713041921 -4097 -1025 -7611669
            -70518053 -2114625</internalNodes>
          <leafValues>
            -7.6565009355545044e-01 4.7506561875343323e-01</leafValues></_>
        <_>
          <internalNodes>
            0 -1 51 -8388726 -345245878 -171970046 -1082395156
            -1074806898 391103182 -143662265 1902114122</internalNodes>
          <leafValues>
            -8.3564704656600952e-01 2.6250833272933960e-01</leafValues></_>
        <_>
          <internalNodes>
            0 -1 72 -134744078 2002768538 1259487486 -1486400641
            -619667458 -544670792 1596496895 -1610613761</internalNodes>
          <leafValues>
            -6.3834720849990845e-01 4.3901562690734863e-01</leafValues></_>
        <_>
          <internalNodes>
            0 -1 9 297521399 2069808375 -145536521 2144883167 8089717
            318682285 486533089 1031107925</internalNodes>
          <leafValues>
            -8.2556307315826416e-01 3.4521314501762390e-01</leafValues></_>
        <_>
          <internalNodes>
            0 -1 46 -771227958 -176425997 -2122068229 -12853802
            -550519893 2131446523 -68689351 -648167702</internalNodes>
          <leafValues>
            -5.8631032705307007e-01 4.9639022350311279e-01</leafValues></_>
        <_>
          <internalNodes>
            0 -1 99 -6292502 -2100274 1170681896 -176426773 1935139826
            1916883202 -142089298 1430650861</internalNodes>
          <leafValues>
            -8.1205737590789795e-01 3.4634259343147278e-01</leafValues></_></weakClassifiers></_>
    <!-- stage 8 -->
    <_>
      <maxWeakCount>5</maxWeakCount>
      <stageThreshold>-1.4776049852371216e+00</stageThreshold>
      <weakClassifiers>
        <_>
          <internalNodes>
            0 -1 61 -581970481 -17 -2359329 -257 -607125505 -71584002
            -134479873 -9217</internalNodes>
          <leafValues>
            -7.7045637369155884e-01 4.4291090965270996e-01</leafValues></_>
        <_>
          <internalNodes>
            0 -1 94 -603979778 -69601544 2030930428 -35835907 -525377
            454598910 -1148191809 -100663297</internalNodes>
          <leafValues>
            -6.4708334207534790e-01 4.0683564543724060e-01</leafValues></_>
        <_>
          <internalNodes>
            0 -1 0 -14819841 -1421023010 -1398948565 -1882200876
            -610271494 1997191967 521079711 1330626539</internalNodes>
          <leafValues>
            -7.1136128902435303e-01 3.8744133710861206e-01</leafValues></_>
        <_>
          <internalNodes>
            0 -1 59 -73924886 1919678154 1886646946 1936962559
            -554762529 1087109258 1106769255 1359476198</internalNodes>
          <leafValues>
            -8.2531595230102539e-01 3.2637771964073181e-01</leafValues></_>
        <_>
          <internalNodes>
            0 -1 5 -150929417 -134380457 737315758 -181018279 925148919
            -537806323 773893588 -143147011</internalNodes>
          <leafValues>
            -6.6746795177459717e-01 4.2269292473793030e-01</leafValues></_></weakClassifiers></_>
    <!-- stage 9 -->
    <_>
      <maxWeakCount>7</maxWeakCount>
      <stageThreshold>-1.5351915359497070e+00</stageThreshold>
      <weakClassifiers>
        <_>
          <internalNodes>
            0 -1 27 -817496065 -15335467 -571009057 -27803883 -572659201
            -9297 -577904641 -17409</internalNodes>
          <leafValues>
            -7.8076815605163574e-01 3.0546623468399048e-01</leafValues></_>
        <_>
          <internalNodes>
            0 -1 65 -1046 -2625810 -239336884 -67144753 2012695535
            1304905946 -873496609 -238026785</internalNodes>
          <leafValues>
            -6.6250306367874146e-01 3.8665863871574402e-01</leafValues></_>
        <_>
          <internalNodes>
            0 -1 41 -1827617666 -24625 1442184639 -322053 -1230770950
            -42054 -1140850691 -1344399366</internalNodes>
          <leafValues>
            -5.8960604667663574e-01 4.5874071121215820e-01</leafValues></_>
        <_>
          <internalNodes>
            0 -1 90 -1242759201 -134147 -545915393 -539181092
            -1145044993 -786433 -1244146307 222102704</internalNodes>
          <leafValues>
            -7.0199072360992432e-01 3.8161903619766235e-01</leafValues></_>
        <_>
          <internalNodes>
            0 -1 33 1363407594 -145898636 -6971777 1607465327 323353342
            -174331445 -195712086 -719545622</internalNodes>
          <leafValues>
            -6.8334197998046875e-01 3.9271342754364014e-01</leafValues></_>
        <_>
          <internalNodes>
            0 -1 103 -100926513 -801247489 -794015588 -2138247513
            -91641537 -46282343 -607531301 -2135162946</internalNodes>
          <leafValues>
            -5.6701838970184326e-01 4.7942364215850830e-01</leafValues></_>
        <_>
          <internalNodes>
            0 -1 96 1896419532 -10554297 402775934 1427534727
            -1812485974 1935344907 -219546962 -146276615</internalNodes>
          <leafValues>
            -6.9391375780105591e-01 3.9167046546936035e-01</leafValues></_></weakClassifiers></_>
    <!-- stage 10 -->
    <_>
      <maxWeakCount>7</maxWeakCount>
      <stageThreshold>-1.6586130857467651e+00</stageThreshold>
      <weakClassifiers>
        <_>
          <internalNodes>
            0 -1 67 -217852997 -289 -939524129 -1065 -270532609
            -67249473 -393253 -1025</internalNodes>
          <leafValues>
            -7.5494712591171265e-01 3.5141798853874207e-01</leafValues></_>
        <_>
          <internalNodes>
            0 -1 86 1887587583 -72692070 1297111539 2079979840
            -1901400861 -1434272008 -132645509 -4523080</internalNodes>
          <leafValues>
            -6.2564450502395630e-01 3.8466775417327881e-01</leafValues></_>
        <_>
          <internalNodes>
            0 -1 84 1363931338 -203427090 386920110 -1313 -1210131458
            -341155074 726400943 1473118206</internalNodes>
          <leafValues>
            -7.0629018545150757e-01 3.5987791419029236e-01</leafValues></_>
        <_>
          <internalNodes>
            0 -1 64 -1569145605 -208150529 -15605797 536395132
            -807719249 -1580118 479313855 -1416387414</internalNodes>
          <leafValues>
            -6.2886852025985718e-01 4.0635672211647034e-01</leafValues></_>
        <_>
          <internalNodes>
            0 -1 40 -1850161434 -1263624751 -95572773 -1663094297
            -1180054870 -26087569 1848289107 1065219577</internalNodes>
          <leafValues>
            -6.9475913047790527e-01 3.8513329625129700e-01</leafValues></_>
        <_>
          <internalNodes>
            0 -1 37 -238040374 -2097330 -713190264 1465899994 -136332323
            1397476934 -71324997 1474231790</internalNodes>
          <leafValues>
            -7.1744370460510254e-01 3.4403815865516663e-01</leafValues></_>
        <_>
          <internalNodes>
            0 -1 82 90705151 2127716343 -907542786 -53472414 -722469957
            -21049998 -305595663 -377859</internalNodes>
          <leafValues>
            -6.0724312067031860e-01 3.9285975694656372e-01</leafValues></_></weakClassifiers></_>
    <!-- stage 11 -->
    <_>
      <maxWeakCount>7</maxWeakCount>
      <stageThreshold>-1.7029119729995728e+00</stageThreshold>
      <weakClassifiers>
        <_>
          <internalNodes>
            0 -1 70 -138412033 -673318945 -7550122 -656417 -604181762
            -335770404 -1344958785 -65</internalNodes>
          <leafValues>
            -7.8218388557434082e-01 2.1764706075191498e-01</leafValues></_>
        <_>
          <internalNodes>
            0 -1 38 -587726849 -67658050 1543626740 2002099643 -74450305
            2143592620 976583663 -672834</internalNodes>
          <leafValues>
            -6.1967504024505615e-01 3.6918017268180847e-01</leafValues></_>
        <_>
          <internalNodes>
            0 -1 12 -67111238 -1145918830 -771145297 -299365 -1685069094
            -1299021694 -3909 536815803</internalNodes>
          <leafValues>
            -6.1698240041732788e-01 3.8707050681114197e-01</leafValues></_>
        <_>
          <internalNodes>
            0 -1 97 -758254898 1946154622 -750720057 1965159359
            -201327622 -1208828896 1993341935 1465253374</internalNodes>
          <leafValues>
            -6.7661029100418091e-01 3.4811973571777344e-01</leafValues></_>
        <_>
          <internalNodes>
            0 -1 35 -1676911105 -1796189040 -682768489 -1294876477
            -667131913 -276342327 -1701250073 -272859155</internalNodes>
          <leafValues>
            -6.6393804550170898e-01 3.7849712371826172e-01</leafValues></_>
        <_>
          <internalNodes>
            0 -1 2 -78332201 -272249833 -1285643306 452784789
            -1281366899 1471612079 -81037735 123945367</internalNodes>
          <leafValues>
            -6.9650536775588989e-01 3.6920312047004700e-01</leafValues></_>
        <_>
          <internalNodes>
            0 -1 52 -69208082 -1077005313 -1877048190 2147462902
            -175113330 1381476683 -221775898 -180880554</internalNodes>
          <leafValues>
            -6.6465508937835693e-01 3.5098725557327271e-01</leafValues></_></weakClassifiers></_>
    <!-- stage 12 -->
    <_>
      <maxWeakCount>7</maxWeakCount>
      <stageThreshold>-1.8978852033615112e+00</stageThreshold>
      <weakClassifiers>
        <_>
          <internalNodes>
            0 -1 55 -201329677 -688397681 -2107461 -2099221 -436210689
            -83887365 -140512261 -135268865</internalNodes>
          <leafValues>
            -7.7803140878677368e-01 2.2814069688320160e-01</leafValues></_>
        <_>
          <internalNodes>
            0 -1 22 -1074053201 -1680654069 -546834977 99963381
            -1817536113 -1163150585 -1450509377 -743505777</internalNodes>
          <leafValues>
            -6.0957443714141846e-01 3.2793408632278442e-01</leafValues></_>
        <_>
          <internalNodes>
            0 -1 53 1343483970 1903951740 -575932961 -1782597737
            -797311236 -101211205 1979021163 1096152544</internalNodes>
          <leafValues>
            -8.3759421110153198e-01 2.4304154515266418e-01</leafValues></_>
        <_>
          <internalNodes>
            0 -1 54 340010110 -2785538 1599209463 -98337 -1132482571
            -1365016837 519027709 -1108722690</internalNodes>
          <leafValues>
            -6.3635033369064331e-01 3.6779406666755676e-01</leafValues></_>
        <_>
          <internalNodes>
            0 -1 106 -2120237655 1226869872 -1861016065 -360713781
            1625271258 -1924220022 -850601723 1566552031</internalNodes>
          <leafValues>
            -6.1716580390930176e-01 3.8188636302947998e-01</leafValues></_>
        <_>
          <internalNodes>
            0 -1 69 -171452190 -137626494 -577036341 -765767052
            -34605349 720357558 467927006 1397117388</internalNodes>
          <leafValues>
            -7.7799886465072632e-01 3.0798295140266418e-01</leafValues></_>
        <_>
          <internalNodes>
            0 -1 20 -674116107 -683553198 -1266453003 -682337963
            1546189813 650443005 -1356837455 -1099923979</internalNodes>
          <leafValues>
            -6.7133301496505737e-01 3.4068548679351807e-01</leafValues></_></weakClassifiers></_>
    <!-- stage 13 -->
    <_>
      <maxWeakCount>7</maxWeakCount>
      <stageThreshold>-1.6687101125717163e+00</stageThreshold>
      <weakClassifiers>
        <_>
          <internalNodes>
            0 -1 18 -5536513 -547371533 -607153153 -1151337489
            -1348206593 -570436393 -274206721 -67108865</internalNodes>
          <leafValues>
            -7.3591923713684082e-01 3.6684781312942505e-01</leafValues></_>
        <_>
          <internalNodes>
            0 -1 105 1393292194 -537922641 -30999086 -168429625
            2134637174 -539237378 1064039358 -1075842649</internalNodes>
          <leafValues>
            -5.9874802827835083e-01 3.6360454559326172e-01</leafValues></_>
        <_>
          <internalNodes>
            0 -1 83 -251621176 -19939634 -691020081 -715292673 -83099730
            -858993874 -221415475 -539541669</internalNodes>
          <leafValues>
            -6.5881168842315674e-01 3.1591719388961792e-01</leafValues></_>
        <_>
          <internalNodes>
            0 -1 73 -41943817 -1917855535 -1580506779 18305381
            -204482564 -1880622349 -741664130 261562015</internalNodes>
          <leafValues>
            -5.4665774106979370e-01 3.9594402909278870e-01</leafValues></_>
        <_>
          <internalNodes>
            0 -1 24 1958245879 -53427205 -571679745 2098262863 -24327685
            -3159105 -1104220427 -1146849327</internalNodes>
          <leafValues>
            -6.2026429176330566e-01 3.7270617485046387e-01</leafValues></_>
        <_>
          <internalNodes>
            0 -1 63 535328511 2067641759 -1113727009 2092825085
            -1080893957 -130504133 1002765823 675296864</internalNodes>
          <leafValues>
            -6.5364480018615723e-01 3.6197388172149658e-01</leafValues></_>
        <_>
          <internalNodes>
            0 -1 23 855899894 1128735567 2111783396 1606393863 547354832
            1343589910 -235034225 1364832605</internalNodes>
          <leafValues>
            -7.8761368989944458e-01 2.6742741465568542e-01</leafValues></_></weakClassifiers></_>
    <!-- stage 14 -->
    <_>
      <maxWeakCount>8</maxWeakCount>
      <stageThreshold>-1.3767756223678589e+00</stageThreshold>
      <weakClassifiers>
        <_>
          <internalNodes>
            0 -1 19 -10493953 -69217153 -11276417 -1082158987 -134227201
            -271607361 -7667713 -5242881</internalNodes>
          <leafValues>
            -7.2044688463211060e-01 4.1935482621192932e-01</leafValues></_>
        <_>
          <internalNodes>
            0 -1 88 -211812362 -608335300 -577184260 -1080176647
            -749149185 -14907208 -1680081921 -1140879361</internalNodes>
          <leafValues>
            -6.2612783908843994e-01 3.2880944013595581e-01</leafValues></_>
        <_>
          <internalNodes>
            0 -1 77 -68195378 -3048578 1737019304 1608337342 -149510
            -1642294852 2139089214 1599957674</internalNodes>
          <leafValues>
            -7.3565256595611572e-01 2.8337013721466064e-01</leafValues></_>
        <_>
          <internalNodes>
            0 -1 102 1397703406 -546832402 -1398767640 -179963190
            1402991598 1474359200 -763364438 1430650862</internalNodes>
          <leafValues>
            -7.0448124408721924e-01 2.8945699334144592e-01</leafValues></_>
        <_>
          <internalNodes>
            0 -1 45 137763773 -1780542179 -44564513 -1122297521
            -1349520385 -1345208849 1019172855 1039867903</internalNodes>
          <leafValues>
            -6.6893625259399414e-01 3.5477969050407410e-01</leafValues></_>
        <_>
          <internalNodes>
            0 -1 57 1407179210 -8461969 -1976899845 -268579489
            -1181880626 -1208031569 1464580789 -16908290</internalNodes>
          <leafValues>
            -5.7224476337432861e-01 4.0660989284515381e-01</leafValues></_>
        <_>
          <internalNodes>
            0 -1 104 -419647933 -923075819 -1556092246 -2100369501
            1941068544 1549001468 -755595338 -1526727869</internalNodes>
          <leafValues>
            -7.3045551776885986e-01 3.0077987909317017e-01</leafValues></_>
        <_>
          <internalNodes>
            0 -1 15 -1089816640 -268963537 1841778774 -2264740
            -1817434678 -1746943761 -1034740269 -1141935147</internalNodes>
          <leafValues>
            -5.6518346071243286e-01 4.2682418227195740e-01</leafValues></_></weakClassifiers></_>
    <!-- stage 15 -->
    <_>
      <maxWeakCount>9</maxWeakCount>
      <stageThreshold>-1.7440288066864014e+00</stageThreshold>
      <weakClassifiers>
        <_>
          <internalNodes>
            0 -1 50 -203426817 -671096489 -222299985 -6297497 -144982017
            -289897 1943981759 -4195409</internalNodes>
          <leafValues>
            -7.4163722991943359e-01 2.7582016587257385e-01</leafValues></_>
        <_>
          <internalNodes>
            0 -1 81 -1895563269 -1315364672 -5112399 -40826480 -42205697
            -272897125 -155189791 -101730976</internalNodes>
          <leafValues>
            -5.6663668155670166e-01 3.7046781182289124e-01</leafValues></_>
        <_>
          <internalNodes>
            0 -1 4 2119426015 1952625724 1604015678 1878457267
            1298497023 1880370923 1596411138 1903386439</internalNodes>
          <leafValues>
            -5.6254303455352783e-01 3.8684114813804626e-01</leafValues></_>
        <_>
          <internalNodes>
            0 -1 44 -536871226 -951091282 -595363126 -254837051
            -201376021 525177371 1887152718 1892152003</internalNodes>
          <leafValues>
            -6.9940268993377686e-01 3.1095823645591736e-01</leafValues></_>
        <_>
          <internalNodes>
            0 -1 47 808474808 -543492353 122937333 1281274965
            -2042459612 -1128588613 -1085759754 -1342229524</internalNodes>
          <leafValues>
            -6.5842288732528687e-01 3.3524286746978760e-01</leafValues></_>
        <_>
          <internalNodes>
            0 -1 16 -509486753 -687619875 1611536703 1960706777
            880911221 -1224228317 -467103371 -167969815</internalNodes>
          <leafValues>
            -6.1136645078659058e-01 3.7189039587974548e-01</leafValues></_>
        <_>
          <internalNodes>
            0 -1 10 1537400015 813858868 1594214863 321594207
            -1213865005 -268180957 -317892133 -671675177</internalNodes>
          <leafValues>
            -5.6514501571655273e-01 3.9164495468139648e-01</leafValues></_>
        <_>
          <internalNodes>
            0 -1 93 -1191038021 -1565903888 -470660450 -559190318
            706915259 -1154418136 -1110476047 -644168478</internalNodes>
          <leafValues>
            -5.2770501375198364e-01 4.4842588901519775e-01</leafValues></_>
        <_>
          <internalNodes>
            0 -1 31 -1152321544 -35799855 -276430921 1427388756 -3551746
            -1441834514 -82870274 678258288</internalNodes>
          <leafValues>
            -7.4767839908599854e-01 2.9939922690391541e-01</leafValues></_></weakClassifiers></_>
    <!-- stage 16 -->
    <_>
      <maxWeakCount>8</maxWeakCount>
      <stageThreshold>-1.8752663135528564e+00</stageThreshold>
      <weakClassifiers>
        <_>
          <internalNodes>
            0 -1 36 -34209793 -8912897 -571482113 -27788965 -1644167169
            -67128709 -570572801 -9249</internalNodes>
          <leafValues>
            -7.4443209171295166e-01 1.9162996113300323e-01</leafValues></_>
        <_>
          <internalNodes>
            0 -1 60 -682633757 -609749057 -145499137 -675548165
            -536870917 -1317891 -1577063681 -940621477</internalNodes>
          <leafValues>
            -4.9034327268600464e-01 4.2538547515869141e-01</leafValues></_>
        <_>
          <internalNodes>
            0 -1 100 -67108886 -2106453 1996845216 -272531 -82857527
            1124375120 -145359922 -672138305</internalNodes>
          <leafValues>
            -5.2729207277297974e-01 3.8324442505836487e-01</leafValues></_>
        <_>
          <internalNodes>
            0 -1 58 -722775966 -791156050 -73704790 -201338150
            -942146833 1739562414 1476163406 1472591869</internalNodes>
          <leafValues>
            -7.8471851348876953e-01 2.6960250735282898e-01</leafValues></_>
        <_>
          <internalNodes>
            0 -1 1 -1684080641 -545808988 -1768814310 -2947282
            -1209006413 -1755013120 622897653 -134765145</internalNodes>
          <leafValues>
            -6.6265070438385010e-01 3.3476930856704712e-01</leafValues></_>
        <_>
          <internalNodes>
            0 -1 87 -1141161987 -1145373750 363585339 -79431407
            -2111123733 -1413824809 135757555 -545587760</internalNodes>
          <leafValues>
            -4.4711765646934509e-01 4.8084476590156555e-01</leafValues></_>
        <_>
          <internalNodes>
            0 -1 101 -1895637169 -1840012219 -1133712167 521583615
            -874799361 -1615133989 -1695750146 -1175821331</internalNodes>
          <leafValues>
            -5.1409882307052612e-01 4.4112810492515564e-01</leafValues></_>
        <_>
          <internalNodes>
            0 -1 17 -1299448885 -1447014016 -820947459 -1615641531
            1595864039 573332173 -1649412661 -1279373329</internalNodes>
          <leafValues>
            -5.4053211212158203e-01 3.9411014318466187e-01</leafValues></_></weakClassifiers></_></stages>
  <features>
    <_>
      <rect>
        0 16 26 8</rect></_>
    <_>
      <rect>
        12 12 14 6</rect></_>
    <_>
      <rect>
        15 0 13 9</rect></_>
    <_>
      <rect>
        16 9 16 10</rect></_>
    <_>
      <rect>
        18 4 5 11</rect></_>
    <_>
      <rect>
        19 9 8 7</rect></_>
    <_>
      <rect>
        19 10 10 7</rect></_>
    <_>
      <rect>
        20 0 14 6</rect></_>
    <_>
      <rect>
        21 10 9 7</rect></_>
    <_>
      <rect>
        22 5 9 7</rect></_>
    <_>
      <rect>
        23 7 11 10</rect></_>
    <_>
      <rect>
        23 27 1 1</rect></_>
    <_>
      <rect>
        24 2 11 12</rect></_>
    <_>
      <rect>
        24 4 11 5</rect></_>
    <_>
      <rect>
        25 0 12 11</rect></_>
    <_>
      <rect>
        25 8 3 3</rect></_>
    <_>
      <rect>
        25 11 7 6</rect></_>
    <_>
      <rect>
        26 7 11 11</rect></_>
    <_>
      <rect>
        26 9 8 10</rect></_>
    <_>
      <rect>
        26 11 9 9</rect></_>
    <_>
      <rect>
        27 12 5 7</rect></_>
    <_>
      <rect>
        28 8 6 8</rect></_>
    <_>
      <rect>
        28 10 9 10</rect></_>
    <_>
      <rect>
        28 13 3 4</rect></_>
    <_>
      <rect>
        28 13 6 6</rect></_>
    <_>
      <rect>
        28 19 6 3</rect></_>
    <_>
      <rect>
        28 20 6 3</rect></_>
    <_>
      <rect>
        29 12 8 5</rect></_>
    <_>
      <rect>
        29 15 8 8</rect></_>
    <_>
      <rect>
        29 17 3 2</rect></_>
    <_>
      <rect>
        29 21 6 3</rect></_>
    <_>
      <rect>
        30 1 4 4</rect></_>
    <_>
      <rect>
        30 1 5 5</rect></_>
    <_>
      <rect>
        30 8 3 6</rect></_>
    <_>
      <rect>
        30 11 7 6</rect></_>
    <_>
      <rect>
        30 11 7 7</rect></_>
    <_>
      <rect>
        30 12 7 5</rect></_>
    <_>
      <rect>
        30 14 3 3</rect></_>
    <_>
      <rect>
        30 14 3 6</rect></_>
    <_>
      <rect>
        30 19 7 3</rect></_>
    <_>
      <rect>
        31 11 4 3</rect></_>
    <_>
      <rect>
        32 8 4 4</rect></_>
    <_>
      <rect>
        32 9 6 4</rect></_>
    <_>
      <rect>
        32 14 2 3</rect></_>
    <_>
      <rect>
        32 15 2 3</rect></_>
    <_>
      <rect>
        32 22 6 6</rect></_>
    <_>
      <rect>
        33 9 2 5</rect></_>
    <_>
      <rect>
        33 11 5 3</rect></_>
    <_>
      <rect>
        33 17 2 3</rect></_>
    <_>
      <rect>
        34 10 2 4</rect></_>
    <_>
      <rect>
        34 11 3 4</rect></_>
    <_>
      <rect>
        34 15 2 3</rect></_>
    <_>
      <rect>
        34 18 2 2</rect></_>
    <_>
      <rect>
        35 8 2 6</rect></_>
    <_>
      <rect>
        35 8 4 4</rect></_>
    <_>
      <rect>
        35 12 2 3</rect></_>
    <_>
      <rect>
        36 10 2 4</rect></_>
    <_>
      <rect>
        36 12 3 4</rect></_>
    <_>
      <rect>
        36 13 2 3</rect></_>
    <_>
      <rect>
        36 15 2 3</rect></_>
    <_>
      <rect>
        37 5 2 6</rect></_>
    <_>
      <rect>
        37 9 2 4</rect></_>
    <_>
      <rect>
        37 15 2 3</rect></_>
    <_>
      <rect>
        38 0 3 3</rect></_>
    <_>
      <rect>
        38 14 4 8</rect></_>
    <_>
      <rect>
        38 15 2 3</rect></_>
    <_>
      <rect>
        39 4 9 12</rect></_>
    <_>
      <rect>
        39 7 2 5</rect></_>
    <_>
      <rect>
        39 12 2 4</rect></_>
    <_>
      <rect>
        39 14 2 3</rect></_>
    <_>
      <rect>
        39 17 2 5</rect></_>
    <_>
      <rect>
        39 19 1 1</rect></_>
    <_>
      <rect>
        39 19 2 3</rect></_>
    <_>
      <rect>
        40 4 7 12</rect></_>
    <_>
      <rect>
        40 8 2 5</rect></_>
    <_>
      <rect>
        40 10 2 4</rect></_>
    <_>
      <rect>
        40 15 2 3</rect></_>
    <_>
      <rect>
        40 15 2 4</rect></_>
    <_>
      <rect>
        40 17 2 5</rect></_>
    <_>
      <rect>
        40 18 2 2</rect></_>
    <_>
      <rect>
        40 18 2 4</rect></_>
    <_>
      <rect>
        40 20 5 2</rect></_>
    <_>
      <rect>
        41 11 4 4</rect></_>
    <_>
      <rect>
        41 12 2 3</rect></_>
    <_>
      <rect>
        41 12 2 4</rect></_>
    <_>
      <rect>
        41 13 2 2</rect></_>
    <_>
      <rect>
        41 15 4 3</rect></_>
    <_>
      <rect>
        41 16 4 3</rect></_>
    <_>
      <rect>
        41 18 2 4</rect></_>
    <_>
      <rect>
        41 19 2 3</rect></_>
    <_>
      <rect>
        41 19 4 4</rect></_>
    <_>
      <rect>
        42 8 2 5</rect></_>
    <_>
      <rect>
        42 13 2 3</rect></_>
    <_>
      <rect>
        42 14 4 4</rect></_>
    <_>
      <rect>
        42 17 2 4</rect></_>
    <_>
      <rect>
        42 18 2 2</rect></_>
    <_>
      <rect>
        43 13 2 3</rect></_>
    <_>
      <rect>
        43 13 2 4</rect></_>
    <_>
      <rect>
        44 16 2 2</rect></_>
    <_>
      <rect>
        44 17 2 2</rect></_>
    <_>
      <rect>
        44 18 2 2</rect></_>
    <_>
      <rect>
        45 6 3 4</rect></_>
    <_>
      <rect>
        45 15 2 3</rect></_>
    <_>
      <rect>
        46 4 6 7</rect></_>
    <_>
      <rect>
        46 4 9 9</rect></_>
    <_>
      <rect>
        47 14 2 4</rect></_>
    <_>
      <rect>
        47 16 5 5</rect></_></features></cascade>
</opencv_storage>
