<?xml version="1.0"?>
<opencv_storage>
<stage10>
  <maxWeakCount>7</maxWeakCount>
  <stageThreshold>-1.6586130857467651e+00</stageThreshold>
  <weakClassifiers>
    <_>
      <internalNodes>
        0 -1 203907 -217852997 -289 -939524129 -1065 -270532609
        -67249473 -393253 -1025</internalNodes>
      <leafValues>
        -7.5494712591171265e-01 3.5141798853874207e-01</leafValues></_>
    <_>
      <internalNodes>
        0 -1 211666 1887587583 -72692070 1297111539 2079979840
        -1901400861 -1434272008 -132645509 -4523080</internalNodes>
      <leafValues>
        -6.2564450502395630e-01 3.8466775417327881e-01</leafValues></_>
    <_>
      <internalNodes>
        0 -1 211314 1363931338 -203427090 386920110 -1313 -1210131458
        -341155074 726400943 1473118206</internalNodes>
      <leafValues>
        -7.0629018545150757e-01 3.5987791419029236e-01</leafValues></_>
    <_>
      <internalNodes>
        0 -1 201319 -1569145605 -208150529 -15605797 536395132
        -807719249 -1580118 479313855 -1416387414</internalNodes>
      <leafValues>
        -6.2886852025985718e-01 4.0635672211647034e-01</leafValues></_>
    <_>
      <internalNodes>
        0 -1 173889 -1850161434 -1263624751 -95572773 -1663094297
        -1180054870 -26087569 1848289107 1065219577</internalNodes>
      <leafValues>
        -6.9475913047790527e-01 3.8513329625129700e-01</leafValues></_>
    <_>
      <internalNodes>
        0 -1 170150 -238040374 -2097330 -713190264 1465899994 -136332323
        1397476934 -71324997 1474231790</internalNodes>
      <leafValues>
        -7.1744370460510254e-01 3.4403815865516663e-01</leafValues></_>
    <_>
      <internalNodes>
        0 -1 211215 90705151 2127716343 -907542786 -53472414 -722469957
        -21049998 -305595663 -377859</internalNodes>
      <leafValues>
        -6.0724312067031860e-01 3.9285975694656372e-01</leafValues></_></weakClassifiers></stage10>
</opencv_storage>
