<?xml version="1.0"?>
<opencv_storage>
<stage8>
  <maxWeakCount>5</maxWeakCount>
  <stageThreshold>-1.4776049852371216e+00</stageThreshold>
  <weakClassifiers>
    <_>
      <internalNodes>
        0 -1 197003 -581970481 -17 -2359329 -257 -607125505 -71584002
        -134479873 -9217</internalNodes>
      <leafValues>
        -7.7045637369155884e-01 4.4291090965270996e-01</leafValues></_>
    <_>
      <internalNodes>
        0 -1 215062 -603979778 -69601544 2030930428 -35835907 -525377
        454598910 -1148191809 -100663297</internalNodes>
      <leafValues>
        -6.4708334207534790e-01 4.0683564543724060e-01</leafValues></_>
    <_>
      <internalNodes>
        0 -1 4575 -14819841 -1421023010 -1398948565 -1882200876
        -610271494 1997191967 521079711 1330626539</internalNodes>
      <leafValues>
        -7.1136128902435303e-01 3.8744133710861206e-01</leafValues></_>
    <_>
      <internalNodes>
        0 -1 194130 -73924886 1919678154 1886646946 1936962559
        -554762529 1087109258 1106769255 1359476198</internalNodes>
      <leafValues>
        -8.2531595230102539e-01 3.2637771964073181e-01</leafValues></_>
    <_>
      <internalNodes>
        0 -1 117356 -150929417 -134380457 737315758 -181018279 925148919
        -537806323 773893588 -143147011</internalNodes>
      <leafValues>
        -6.6746795177459717e-01 4.2269292473793030e-01</leafValues></_></weakClassifiers></stage8>
</opencv_storage>
