<?xml version="1.0"?>
<opencv_storage>
<stage12>
  <maxWeakCount>7</maxWeakCount>
  <stageThreshold>-1.8978852033615112e+00</stageThreshold>
  <weakClassifiers>
    <_>
      <internalNodes>
        0 -1 190001 -201329677 -688397681 -2107461 -2099221 -436210689
        -83887365 -140512261 -135268865</internalNodes>
      <leafValues>
        -7.7803140878677368e-01 2.2814069688320160e-01</leafValues></_>
    <_>
      <internalNodes>
        0 -1 160904 -1074053201 -1680654069 -546834977 99963381
        -1817536113 -1163150585 -1450509377 -743505777</internalNodes>
      <leafValues>
        -6.0957443714141846e-01 3.2793408632278442e-01</leafValues></_>
    <_>
      <internalNodes>
        0 -1 189420 1343483970 1903951740 -575932961 -1782597737
        -797311236 -101211205 1979021163 1096152544</internalNodes>
      <leafValues>
        -8.3759421110153198e-01 2.4304154515266418e-01</leafValues></_>
    <_>
      <internalNodes>
        0 -1 189438 340010110 -2785538 1599209463 -98337 -1132482571
        -1365016837 519027709 -1108722690</internalNodes>
      <leafValues>
        -6.3635033369064331e-01 3.6779406666755676e-01</leafValues></_>
    <_>
      <internalNodes>
        0 -1 229904 -2120237655 1226869872 -1861016065 -360713781
        1625271258 -1924220022 -850601723 1566552031</internalNodes>
      <leafValues>
        -6.1716580390930176e-01 3.8188636302947998e-01</leafValues></_>
    <_>
      <internalNodes>
        0 -1 204786 -171452190 -137626494 -577036341 -765767052
        -34605349 720357558 467927006 1397117388</internalNodes>
      <leafValues>
        -7.7799886465072632e-01 3.0798295140266418e-01</leafValues></_>
    <_>
      <internalNodes>
        0 -1 156760 -674116107 -683553198 -1266453003 -682337963
        1546189813 650443005 -1356837455 -1099923979</internalNodes>
      <leafValues>
        -6.7133301496505737e-01 3.4068548679351807e-01</leafValues></_></weakClassifiers></stage12>
</opencv_storage>
