<?xml version="1.0"?>
<opencv_storage>
<stage7>
  <maxWeakCount>6</maxWeakCount>
  <stageThreshold>-2.1946434974670410e+00</stageThreshold>
  <weakClassifiers>
    <_>
      <internalNodes>
        0 -1 207429 -213650433 -10487041 -713041921 -4097 -1025 -7611669
        -70518053 -2114625</internalNodes>
      <leafValues>
        -7.6565009355545044e-01 4.7506561875343323e-01</leafValues></_>
    <_>
      <internalNodes>
        0 -1 186490 -8388726 -345245878 -171970046 -1082395156
        -1074806898 391103182 -143662265 1902114122</internalNodes>
      <leafValues>
        -8.3564704656600952e-01 2.6250833272933960e-01</leafValues></_>
    <_>
      <internalNodes>
        0 -1 205279 -134744078 2002768538 1259487486 -1486400641
        -619667458 -544670792 1596496895 -1610613761</internalNodes>
      <leafValues>
        -6.3834720849990845e-01 4.3901562690734863e-01</leafValues></_>
    <_>
      <internalNodes>
        0 -1 131792 297521399 2069808375 -145536521 2144883167 8089717
        318682285 486533089 1031107925</internalNodes>
      <leafValues>
        -8.2556307315826416e-01 3.4521314501762390e-01</leafValues></_>
    <_>
      <internalNodes>
        0 -1 181769 -771227958 -176425997 -2122068229 -12853802
        -550519893 2131446523 -68689351 -648167702</internalNodes>
      <leafValues>
        -5.8631032705307007e-01 4.9639022350311279e-01</leafValues></_>
    <_>
      <internalNodes>
        0 -1 221300 -6292502 -2100274 1170681896 -176426773 1935139826
        1916883202 -142089298 1430650861</internalNodes>
      <leafValues>
        -8.1205737590789795e-01 3.4634259343147278e-01</leafValues></_></weakClassifiers></stage7>
</opencv_storage>
