<?xml version="1.0"?>
<opencv_storage>
<stage15>
  <maxWeakCount>9</maxWeakCount>
  <stageThreshold>-1.7440288066864014e+00</stageThreshold>
  <weakClassifiers>
    <_>
      <internalNodes>
        0 -1 185976 -203426817 -671096489 -222299985 -6297497 -144982017
        -289897 1943981759 -4195409</internalNodes>
      <leafValues>
        -7.4163722991943359e-01 2.7582016587257385e-01</leafValues></_>
    <_>
      <internalNodes>
        0 -1 208766 -1895563269 -1315364672 -5112399 -40826480 -42205697
        -272897125 -155189791 -101730976</internalNodes>
      <leafValues>
        -5.6663668155670166e-01 3.7046781182289124e-01</leafValues></_>
    <_>
      <internalNodes>
        0 -1 111038 2119426015 1952625724 1604015678 1878457267
        1298497023 1880370923 1596411138 1903386439</internalNodes>
      <leafValues>
        -5.6254303455352783e-01 3.8684114813804626e-01</leafValues></_>
    <_>
      <internalNodes>
        0 -1 178590 -536871226 -951091282 -595363126 -254837051
        -201376021 525177371 1887152718 1892152003</internalNodes>
      <leafValues>
        -6.9940268993377686e-01 3.1095823645591736e-01</leafValues></_>
    <_>
      <internalNodes>
        0 -1 182093 808474808 -543492353 122937333 1281274965
        -2042459612 -1128588613 -1085759754 -1342229524</internalNodes>
      <leafValues>
        -6.5842288732528687e-01 3.3524286746978760e-01</leafValues></_>
    <_>
      <internalNodes>
        0 -1 147389 -509486753 -687619875 1611536703 1960706777
        880911221 -1224228317 -467103371 -167969815</internalNodes>
      <leafValues>
        -6.1136645078659058e-01 3.7189039587974548e-01</leafValues></_>
    <_>
      <internalNodes>
        0 -1 137175 1537400015 813858868 1594214863 321594207
        -1213865005 -268180957 -317892133 -671675177</internalNodes>
      <leafValues>
        -5.6514501571655273e-01 3.9164495468139648e-01</leafValues></_>
    <_>
      <internalNodes>
        0 -1 214791 -1191038021 -1565903888 -470660450 -559190318
        706915259 -1154418136 -1110476047 -644168478</internalNodes>
      <leafValues>
        -5.2770501375198364e-01 4.4842588901519775e-01</leafValues></_>
    <_>
      <internalNodes>
        0 -1 167950 -1152321544 -35799855 -276430921 1427388756 -3551746
        -1441834514 -82870274 678258288</internalNodes>
      <leafValues>
        -7.4767839908599854e-01 2.9939922690391541e-01</leafValues></_></weakClassifiers></stage15>
</opencv_storage>
