<?xml version="1.0"?>
<opencv_storage>
<stage2>
  <maxWeakCount>6</maxWeakCount>
  <stageThreshold>-1.7476181983947754e+00</stageThreshold>
  <weakClassifiers>
    <_>
      <internalNodes>
        0 -1 214094 -774913329 -673197681 -183517097 -681587237
        -104867073 -606097749 -76547345 -2126881</internalNodes>
      <leafValues>
        -8.0873292684555054e-01 6.7666232585906982e-01</leafValues></_>
    <_>
      <internalNodes>
        0 -1 162127 -2752513 -168693293 -245148713 -45025421 -7603201
        -58681094 -36176897 -133107213</internalNodes>
      <leafValues>
        -7.4212986230850220e-01 5.8448708057403564e-01</leafValues></_>
    <_>
      <internalNodes>
        0 -1 221205 -775429150 -77866082 -769408854 -237026617
        1904460426 1464207620 -142347282 -137364497</internalNodes>
      <leafValues>
        -7.0445162057876587e-01 6.4503669738769531e-01</leafValues></_>
    <_>
      <internalNodes>
        0 -1 185818 -770706814 -213911809 -403705409 -672139329 -5507141
        -1304428801 -404226049 -137365509</internalNodes>
      <leafValues>
        -6.0116946697235107e-01 6.9571202993392944e-01</leafValues></_>
    <_>
      <internalNodes>
        0 -1 178462 -24126774 1469003946 1344553611 -672695570
        1905220291 -1957706993 -237250613 -774900874</internalNodes>
      <leafValues>
        -6.8654453754425049e-01 6.2600940465927124e-01</leafValues></_>
    <_>
      <internalNodes>
        0 -1 166063 -1686470689 1071380447 -2112921729 1033499123
        -541069313 -273689633 -637832705 178454699</internalNodes>
      <leafValues>
        -8.2667124271392822e-01 4.9852868914604187e-01</leafValues></_></weakClassifiers></stage2>
</opencv_storage>
