<?xml version="1.0"?>
<opencv_storage>
<stage4>
  <maxWeakCount>6</maxWeakCount>
  <stageThreshold>-2.1542434692382812e+00</stageThreshold>
  <weakClassifiers>
    <_>
      <internalNodes>
        0 -1 169759 -592379905 -919563 -572530721 -26037289 -844234753
        -1060913 -590749697 -1</internalNodes>
      <leafValues>
        -8.3584684133529663e-01 3.6311787366867065e-01</leafValues></_>
    <_>
      <internalNodes>
        0 -1 117576 -537853953 -12320807 2061159927 -142853 865137655
        -149870113 -262876681 -134877193</internalNodes>
      <leafValues>
        -7.8622764348983765e-01 3.4977555274963379e-01</leafValues></_>
    <_>
      <internalNodes>
        0 -1 208567 -4181 1997665260 -82779518 -8397183 -1366405410
        1461472137 1666119599 2012741631</internalNodes>
      <leafValues>
        -7.2849106788635254e-01 3.9989832043647766e-01</leafValues></_>
    <_>
      <internalNodes>
        0 -1 162241 -8388609 -795184 -134217729 1590712309 -151324161
        -142295396 -37945353 -1091545611</internalNodes>
      <leafValues>
        -6.8918281793594360e-01 4.6738955378532410e-01</leafValues></_>
    <_>
      <internalNodes>
        0 -1 120554 -16930849 -1149302533 532535095 1308433371 -89333011
        -307778641 -1381245203 100005887</internalNodes>
      <leafValues>
        -6.3310027122497559e-01 5.2598446607589722e-01</leafValues></_>
    <_>
      <internalNodes>
        0 -1 215144 -172493142 2064204680 -1551884152 -108038193
        -115617413 126207112 -213190193 1437595603</internalNodes>
      <leafValues>
        -7.6635658740997314e-01 4.2845359444618225e-01</leafValues></_></weakClassifiers></stage4>
</opencv_storage>
