<?xml version="1.0"?>
<opencv_storage>
<stage17>
  <maxWeakCount>9</maxWeakCount>
  <stageThreshold>-2.5053384304046631e+00</stageThreshold>
  <weakClassifiers>
    <_>
      <internalNodes>
        0 -1 161226 -10485769 -44835557 -46137857 -809544357 -618988802
        -561324149 -284188673 -1057313</internalNodes>
      <leafValues>
        -7.1754711866378784e-01 2.7694407105445862e-01</leafValues></_>
    <_>
      <internalNodes>
        0 -1 200351 -771239485 -33817601 -503844389 -1619528841
        -141688853 -335676421 -171967047 -876933697</internalNodes>
      <leafValues>
        -5.3855317831039429e-01 3.8012021780014038e-01</leafValues></_>
    <_>
      <internalNodes>
        0 -1 212046 -215788932 -67388709 -128909571 -642727943
        -148980744 -1076043780 -1348109057 -1080472194</internalNodes>
      <leafValues>
        -5.4204845428466797e-01 3.6546477675437927e-01</leafValues></_>
    <_>
      <internalNodes>
        0 -1 215421 -1568037431 803334055 -581445122 -3637 -268962893
        -1414597769 -610555500 -1986013013</internalNodes>
      <leafValues>
        -5.1054769754409790e-01 3.9313548803329468e-01</leafValues></_>
    <_>
      <internalNodes>
        0 -1 193883 -544766336 -1119514462 -507381120 1842346881
        -654902301 -1542356785 -41964605 -1073516000</internalNodes>
      <leafValues>
        -5.4737377166748047e-01 4.0144324302673340e-01</leafValues></_>
    <_>
      <internalNodes>
        0 -1 165884 1998797306 1463678926 -1480220712 1400236437
        -608464521 -547573836 187304511 2002063347</internalNodes>
      <leafValues>
        -6.6597807407379150e-01 3.0386981368064880e-01</leafValues></_>
    <_>
      <internalNodes>
        0 -1 178470 1468787406 1606679502 1378834568 818933753 -3187521
        126820258 1206644323 1909260020</internalNodes>
      <leafValues>
        -7.6422327756881714e-01 2.6041653752326965e-01</leafValues></_>
    <_>
      <internalNodes>
        0 -1 233874 -94495619 -212425797 278064379 544372991 -1078378466
        -82015797 -1426130776 -1104254274</internalNodes>
      <leafValues>
        -5.6177395582199097e-01 3.7535604834556580e-01</leafValues></_>
    <_>
      <internalNodes>
        0 -1 173906 -1325900552 -1168634663 -1810760193 1414904847
        -1025312022 -829836934 2055749246 791629366</internalNodes>
      <leafValues>
        -5.7045400142669678e-01 3.7702256441116333e-01</leafValues></_></weakClassifiers></stage17>
</opencv_storage>
