<?xml version="1.0"?>
<opencv_storage>
<stage13>
  <maxWeakCount>7</maxWeakCount>
  <stageThreshold>-1.6687101125717163e+00</stageThreshold>
  <weakClassifiers>
    <_>
      <internalNodes>
        0 -1 151729 -5536513 -547371533 -607153153 -1151337489
        -1348206593 -570436393 -274206721 -67108865</internalNodes>
      <leafValues>
        -7.3591923713684082e-01 3.6684781312942505e-01</leafValues></_>
    <_>
      <internalNodes>
        0 -1 229703 1393292194 -537922641 -30999086 -168429625
        2134637174 -539237378 1064039358 -1075842649</internalNodes>
      <leafValues>
        -5.9874802827835083e-01 3.6360454559326172e-01</leafValues></_>
    <_>
      <internalNodes>
        0 -1 211313 -251621176 -19939634 -691020081 -715292673 -83099730
        -858993874 -221415475 -539541669</internalNodes>
      <leafValues>
        -6.5881168842315674e-01 3.1591719388961792e-01</leafValues></_>
    <_>
      <internalNodes>
        0 -1 206913 -41943817 -1917855535 -1580506779 18305381
        -204482564 -1880622349 -741664130 261562015</internalNodes>
      <leafValues>
        -5.4665774106979370e-01 3.9594402909278870e-01</leafValues></_>
    <_>
      <internalNodes>
        0 -1 161341 1958245879 -53427205 -571679745 2098262863 -24327685
        -3159105 -1104220427 -1146849327</internalNodes>
      <leafValues>
        -6.2026429176330566e-01 3.7270617485046387e-01</leafValues></_>
    <_>
      <internalNodes>
        0 -1 199188 535328511 2067641759 -1113727009 2092825085
        -1080893957 -130504133 1002765823 675296864</internalNodes>
      <leafValues>
        -6.5364480018615723e-01 3.6197388172149658e-01</leafValues></_>
    <_>
      <internalNodes>
        0 -1 161312 855899894 1128735567 2111783396 1606393863 547354832
        1343589910 -235034225 1364832605</internalNodes>
      <leafValues>
        -7.8761368989944458e-01 2.6742741465568542e-01</leafValues></_></weakClassifiers></stage13>
</opencv_storage>
