<?xml version="1.0"?>
<opencv_storage>
<stage9>
  <maxWeakCount>7</maxWeakCount>
  <stageThreshold>-1.5351915359497070e+00</stageThreshold>
  <weakClassifiers>
    <_>
      <internalNodes>
        0 -1 165625 -817496065 -15335467 -571009057 -27803883 -572659201
        -9297 -577904641 -17409</internalNodes>
      <leafValues>
        -7.8076815605163574e-01 3.0546623468399048e-01</leafValues></_>
    <_>
      <internalNodes>
        0 -1 201410 -1046 -2625810 -239336884 -67144753 2012695535
        1304905946 -873496609 -238026785</internalNodes>
      <leafValues>
        -6.6250306367874146e-01 3.8665863871574402e-01</leafValues></_>
    <_>
      <internalNodes>
        0 -1 177573 -1827617666 -24625 1442184639 -322053 -1230770950
        -42054 -1140850691 -1344399366</internalNodes>
      <leafValues>
        -5.8960604667663574e-01 4.5874071121215820e-01</leafValues></_>
    <_>
      <internalNodes>
        0 -1 212054 -1242759201 -134147 -545915393 -539181092
        -1145044993 -786433 -1244146307 222102704</internalNodes>
      <leafValues>
        -7.0199072360992432e-01 3.8161903619766235e-01</leafValues></_>
    <_>
      <internalNodes>
        0 -1 169245 1363407594 -145898636 -6971777 1607465327 323353342
        -174331445 -195712086 -719545622</internalNodes>
      <leafValues>
        -6.8334197998046875e-01 3.9271342754364014e-01</leafValues></_>
    <_>
      <internalNodes>
        0 -1 225776 -100926513 -801247489 -794015588 -2138247513
        -91641537 -46282343 -607531301 -2135162946</internalNodes>
      <leafValues>
        -5.6701838970184326e-01 4.7942364215850830e-01</leafValues></_>
    <_>
      <internalNodes>
        0 -1 217787 1896419532 -10554297 402775934 1427534727
        -1812485974 1935344907 -219546962 -146276615</internalNodes>
      <leafValues>
        -6.9391375780105591e-01 3.9167046546936035e-01</leafValues></_></weakClassifiers></stage9>
</opencv_storage>
