<?xml version="1.0"?>
<opencv_storage>
<cascade>
  <stageType>BOOST</stageType>
  <featureType>LBP</featureType>
  <height>64</height>
  <width>64</width>
  <stageParams>
    <boostType>GAB</boostType>
    <minHitRate>9.9900001287460327e-01</minHitRate>
    <maxFalseAlarm>5.0000000000000000e-01</maxFalseAlarm>
    <weightTrimRate>9.4999999999999996e-01</weightTrimRate>
    <maxDepth>1</maxDepth>
    <maxWeakCount>100</maxWeakCount></stageParams>
  <featureParams>
    <maxCatCount>256</maxCatCount>
    <featSize>1</featSize></featureParams>
  <stageNum>12</stageNum>
  <stages>
    <!-- stage 0 -->
    <_>
      <maxWeakCount>2</maxWeakCount>
      <stageThreshold>-7.3853321373462677e-02</stageThreshold>
      <weakClassifiers>
        <_>
          <internalNodes>
            0 -1 6 -69206017 -134218849 -241985057 -203557921 -254545153
            134227968 -363988049 -67372037</internalNodes>
          <leafValues>
            -9.9550813436508179e-01 9.4994556903839111e-01</leafValues></_>
        <_>
          <internalNodes>
            0 -1 7 -237505793 -204213281 -247139651 -216538301
            -238034225 -16056314 -139992849 -136318053</internalNodes>
          <leafValues>
            -9.8903715610504150e-01 9.2165482044219971e-01</leafValues></_></weakClassifiers></_>
    <!-- stage 1 -->
    <_>
      <maxWeakCount>2</maxWeakCount>
      <stageThreshold>-1.7376627027988434e-01</stageThreshold>
      <weakClassifiers>
        <_>
          <internalNodes>
            0 -1 25 -402653185 -270541861 -39878665 -272630081 -5259265
            -8403137 -17040385 -285212693</internalNodes>
          <leafValues>
            -9.8726117610931396e-01 8.2733815908432007e-01</leafValues></_>
        <_>
          <internalNodes>
            0 -1 10 -134217729 -6422697 -72625699 -14680321 -37781515
            -71566401 1424577023 -37</internalNodes>
          <leafValues>
            -9.7917133569717407e-01 8.1349486112594604e-01</leafValues></_></weakClassifiers></_>
    <!-- stage 2 -->
    <_>
      <maxWeakCount>3</maxWeakCount>
      <stageThreshold>-1.0917975902557373e+00</stageThreshold>
      <weakClassifiers>
        <_>
          <internalNodes>
            0 -1 32 -2097313 -264357 -67764225 -2507265 -2106545
            -548426483 -1054529 -2359557</internalNodes>
          <leafValues>
            -9.1863662004470825e-01 8.7514185905456543e-01</leafValues></_>
        <_>
          <internalNodes>
            0 -1 9 -236978189 -606078081 -774408841 -169872837
            -707527177 -1346638657 -909117057 -4481</internalNodes>
          <leafValues>
            -9.4047802686691284e-01 7.6613014936447144e-01</leafValues></_>
        <_>
          <internalNodes>
            0 -1 3 -100663297 -606766081 -572919329 -103295781
            -860160038 -108028937 1491905278 -67179521</internalNodes>
          <leafValues>
            -9.3929111957550049e-01 7.9306364059448242e-01</leafValues></_></weakClassifiers></_>
    <!-- stage 3 -->
    <_>
      <maxWeakCount>3</maxWeakCount>
      <stageThreshold>-1.1797835826873779e+00</stageThreshold>
      <weakClassifiers>
        <_>
          <internalNodes>
            0 -1 21 -538968082 2098660102 -201259642 -2239602 -9700978
            -5528613 -255088133 -2102373</internalNodes>
          <leafValues>
            -9.4672840833663940e-01 7.5539571046829224e-01</leafValues></_>
        <_>
          <internalNodes>
            0 -1 1 -220204289 -556088746 -766930433 -760163879
            1218372347 -91037494 -1047924481 -1060113</internalNodes>
          <leafValues>
            -9.3693184852600098e-01 7.7614939212799072e-01</leafValues></_>
        <_>
          <internalNodes>
            0 -1 31 -11017502 -179190877 -787127075 -78253793 -752878857
            -611721021 -107619841 -1025</internalNodes>
          <leafValues>
            -9.7215133905410767e-01 7.0387679338455200e-01</leafValues></_></weakClassifiers></_>
    <!-- stage 4 -->
    <_>
      <maxWeakCount>3</maxWeakCount>
      <stageThreshold>-1.1229084730148315e+00</stageThreshold>
      <weakClassifiers>
        <_>
          <internalNodes>
            0 -1 5 -1617166405 -749615909 -2138964769 -671756041
            -796671573 -774911541 -1282674213 -1029</internalNodes>
          <leafValues>
            -9.2943900823593140e-01 7.2811532020568848e-01</leafValues></_>
        <_>
          <internalNodes>
            0 -1 17 -71306319 -645148475 1082508279 -708097961
            -645143877 -353576561 2033186751 -3073</internalNodes>
          <leafValues>
            -9.0548247098922729e-01 7.7429205179214478e-01</leafValues></_>
        <_>
          <internalNodes>
            0 -1 24 -16779273 -146308777 1097007129 -280509493
            -486544437 -114649004 -362302521 -889193477</internalNodes>
          <leafValues>
            -9.4554132223129272e-01 7.2187656164169312e-01</leafValues></_></weakClassifiers></_>
    <!-- stage 5 -->
    <_>
      <maxWeakCount>3</maxWeakCount>
      <stageThreshold>-1.1501113176345825e+00</stageThreshold>
      <weakClassifiers>
        <_>
          <internalNodes>
            0 -1 22 -755036417 -538977549 -665462785 -8961 -85206081
            -33573661 -125173761 -13409</internalNodes>
          <leafValues>
            -9.0862363576889038e-01 7.2813487052917480e-01</leafValues></_>
        <_>
          <internalNodes>
            0 -1 18 -536872989 -35784245 -473507937 -235424663
            -554711089 -6624631 1469798287 -2106449</internalNodes>
          <leafValues>
            -9.3194562196731567e-01 6.7690443992614746e-01</leafValues></_>
        <_>
          <internalNodes>
            0 -1 8 -1163660613 -541334381 -748560385 -15480425
            -373424193 -86251373 -53748305 -82314561</internalNodes>
          <leafValues>
            -9.1839206218719482e-01 7.1138471364974976e-01</leafValues></_></weakClassifiers></_>
    <!-- stage 6 -->
    <_>
      <maxWeakCount>3</maxWeakCount>
      <stageThreshold>-1.1269557476043701e+00</stageThreshold>
      <weakClassifiers>
        <_>
          <internalNodes>
            0 -1 23 -65 2134892415 -573533729 -218120749 -115617121
            1003344002 -50214673 -4353</internalNodes>
          <leafValues>
            -9.1499412059783936e-01 6.4612329006195068e-01</leafValues></_>
        <_>
          <internalNodes>
            0 -1 2 -654587137 -86253101 -195334433 -1329596449
            -342885377 -36990438 -606217217 -1049665</internalNodes>
          <leafValues>
            -9.0194511413574219e-01 6.7783188819885254e-01</leafValues></_>
        <_>
          <internalNodes>
            0 -1 28 -268743425 -541623817 -921993865 2138922447
            -370422594 -82064429 -330826769 -4194305</internalNodes>
          <leafValues>
            -8.7113392353057861e-01 7.3251652717590332e-01</leafValues></_></weakClassifiers></_>
    <!-- stage 7 -->
    <_>
      <maxWeakCount>3</maxWeakCount>
      <stageThreshold>-1.1534738540649414e+00</stageThreshold>
      <weakClassifiers>
        <_>
          <internalNodes>
            0 -1 14 -202375169 -107222065 -459344037 -605041697
            -607332869 -91790465 -554986633 -1171</internalNodes>
          <leafValues>
            -9.3007838726043701e-01 6.1767530441284180e-01</leafValues></_>
        <_>
          <internalNodes>
            0 -1 13 -37881857 -10619996 1529960311 2098680177
            -1074791425 -1089943128 -1087197481 -3153409</internalNodes>
          <leafValues>
            -8.5919666290283203e-01 7.4804139137268066e-01</leafValues></_>
        <_>
          <internalNodes>
            0 -1 19 -341842029 -41031793 -108022793 -2230049 -878972945
            -1178553622 1945564151 -3154691</internalNodes>
          <leafValues>
            -9.1195249557495117e-01 6.7812037467956543e-01</leafValues></_></weakClassifiers></_>
    <!-- stage 8 -->
    <_>
      <maxWeakCount>4</maxWeakCount>
      <stageThreshold>-1.9244798421859741e+00</stageThreshold>
      <weakClassifiers>
        <_>
          <internalNodes>
            0 -1 34 -2097155 -235669249 -1023286881 -212873045
            -978862197 -532430711 -1014242645 -21</internalNodes>
          <leafValues>
            -8.6681717634201050e-01 6.8534481525421143e-01</leafValues></_>
        <_>
          <internalNodes>
            0 -1 15 -1 -213123073 -1992165409 -246943765 -209488385
            -1597872197 -1697983039 -70520097</internalNodes>
          <leafValues>
            -8.8502216339111328e-01 6.9160521030426025e-01</leafValues></_>
        <_>
          <internalNodes>
            0 -1 0 -14286849 -540290225 -780076105 -673467947 -911229969
            1296976335 -90003281 -268053</internalNodes>
          <leafValues>
            -9.3074381351470947e-01 6.3049912452697754e-01</leafValues></_>
        <_>
          <internalNodes>
            0 -1 11 -19005441 -736963205 -649924129 -75525731 -23396353
            1210759819 -21168390 -1616184385</internalNodes>
          <leafValues>
            -8.3183073997497559e-01 7.5810325145721436e-01</leafValues></_></weakClassifiers></_>
    <!-- stage 9 -->
    <_>
      <maxWeakCount>3</maxWeakCount>
      <stageThreshold>-1.1967625617980957e+00</stageThreshold>
      <weakClassifiers>
        <_>
          <internalNodes>
            0 -1 30 -825234521 -18881537 -20597281 -218104833 -213138785
            -49422208 -205391137 -68159237</internalNodes>
          <leafValues>
            -9.1262716054916382e-01 6.0738581418991089e-01</leafValues></_>
        <_>
          <internalNodes>
            0 -1 4 -1087307845 -134217733 -712663553 -8914049
            -1148454997 -106198785 -1155007553 -6657</internalNodes>
          <leafValues>
            -8.9267903566360474e-01 6.4804911613464355e-01</leafValues></_>
        <_>
          <internalNodes>
            0 -1 33 -47243 -67285641 -871016961 -536914563 -672138801
            -103028345 -607396609 -6292497</internalNodes>
          <leafValues>
            -9.1146939992904663e-01 6.3048231601715088e-01</leafValues></_></weakClassifiers></_>
    <!-- stage 10 -->
    <_>
      <maxWeakCount>3</maxWeakCount>
      <stageThreshold>-1.0707622766494751e+00</stageThreshold>
      <weakClassifiers>
        <_>
          <internalNodes>
            0 -1 27 -1051909 -673852141 -250482571 -67505645 -472523937
            -614526810 -378023911 -268436517</internalNodes>
          <leafValues>
            -8.4855234622955322e-01 6.9026547670364380e-01</leafValues></_>
        <_>
          <internalNodes>
            0 -1 12 -141295653 -544767537 -985281281 -134772261
            -339501569 -1108377441 -873484657 -134750257</internalNodes>
          <leafValues>
            -8.7867695093154907e-01 6.4626687765121460e-01</leafValues></_>
        <_>
          <internalNodes>
            0 -1 29 -136316929 -1378308 2010906623 -281862 -1089499697
            -24165861 267206655 -2110492</internalNodes>
          <leafValues>
            -8.6847680807113647e-01 6.8651139736175537e-01</leafValues></_></weakClassifiers></_>
    <!-- stage 11 -->
    <_>
      <maxWeakCount>3</maxWeakCount>
      <stageThreshold>-1.1315960884094238e+00</stageThreshold>
      <weakClassifiers>
        <_>
          <internalNodes>
            0 -1 26 -10493953 -306212359 319132103 730856632 -74691828
            -801041839 -209464578 -68437009</internalNodes>
          <leafValues>
            -8.9661318063735962e-01 5.9882003068923950e-01</leafValues></_>
        <_>
          <internalNodes>
            0 -1 16 -707791437 -656680739 -1122988583 -83902241
            -1475759169 -489049393 824922365 -54273</internalNodes>
          <leafValues>
            -8.7459117174148560e-01 6.3495516777038574e-01</leafValues></_>
        <_>
          <internalNodes>
            0 -1 20 -35651713 521002809 25846103 2136946007 -107618305
            2145849851 -1874621521 -67122261</internalNodes>
          <leafValues>
            -8.5582494735717773e-01 6.5166640281677246e-01</leafValues></_></weakClassifiers></_></stages>
  <features>
    <_>
      <rect>
        1 28 20 6</rect></_>
    <_>
      <rect>
        2 27 7 5</rect></_>
    <_>
      <rect>
        4 33 6 3</rect></_>
    <_>
      <rect>
        11 33 8 7</rect></_>
    <_>
      <rect>
        12 18 4 5</rect></_>
    <_>
      <rect>
        13 12 5 8</rect></_>
    <_>
      <rect>
        13 29 13 9</rect></_>
    <_>
      <rect>
        15 8 13 9</rect></_>
    <_>
      <rect>
        16 13 7 5</rect></_>
    <_>
      <rect>
        16 21 5 6</rect></_>
    <_>
      <rect>
        17 34 7 4</rect></_>
    <_>
      <rect>
        17 41 5 4</rect></_>
    <_>
      <rect>
        19 7 7 9</rect></_>
    <_>
      <rect>
        20 31 13 7</rect></_>
    <_>
      <rect>
        23 20 3 8</rect></_>
    <_>
      <rect>
        23 21 4 9</rect></_>
    <_>
      <rect>
        23 26 3 3</rect></_>
    <_>
      <rect>
        23 29 3 4</rect></_>
    <_>
      <rect>
        24 32 4 4</rect></_>
    <_>
      <rect>
        24 33 3 3</rect></_>
    <_>
      <rect>
        24 38 9 3</rect></_>
    <_>
      <rect>
        25 37 6 5</rect></_>
    <_>
      <rect>
        27 11 6 5</rect></_>
    <_>
      <rect>
        32 33 3 3</rect></_>
    <_>
      <rect>
        34 15 3 9</rect></_>
    <_>
      <rect>
        34 24 4 4</rect></_>
    <_>
      <rect>
        35 42 2 2</rect></_>
    <_>
      <rect>
        36 18 4 8</rect></_>
    <_>
      <rect>
        37 17 3 3</rect></_>
    <_>
      <rect>
        37 33 5 6</rect></_>
    <_>
      <rect>
        37 34 2 3</rect></_>
    <_>
      <rect>
        38 21 6 6</rect></_>
    <_>
      <rect>
        40 22 6 3</rect></_>
    <_>
      <rect>
        42 20 5 5</rect></_>
    <_>
      <rect>
        46 12 3 14</rect></_></features></cascade>
</opencv_storage>
